{
    "param_dict": {
        "norm_type": "clip_0to1",
        "score_clip": [
            0.0,
            100.0
        ],
        "gamma": 0.05,
        "C": 4.0,
        "nu": 0.9
    },
    "model_dict": {
        "model_type": "LIBSVMNUSVR",
        "feature_names": [
            "FUNQUE_feature_dlm_score",
            "FUNQUE_feature_motion_score",
            "FUNQUE_feature_wd_essim_score",
            "FUNQUE_feature_vif_scale1_score",
            "FUNQUE_feature_vif_scale2_score"
        ],
        "slopes": [
            0.013377926421404682,
            1.7272557199996563,
            16.825122499384847,
            7.082515889058344,
            1.5422824935429589,
            1.7128514863033129
        ],
        "intercepts": [
            -0.06688963210702341,
            -0.6884293898636503,
            -0.10244294441621934,
            -0.037016557078696215,
            -0.5526712893679064,
            -0.7233149952357575
        ],
        "norm_type": "linear_rescale",
        "model": "svm_type nu_svr\nkernel_type rbf\ngamma 0.05\nnr_class 2\ntotal_sv 84\nrho 0.0927242\nSV\n4 1:0.83936445 2:0.065893164 3:0.20281726 4:0.85020825 5:0.8786392 \n-4 1:0.88399057 2:0.065893164 3:0.13911393 4:0.89299774 5:0.91389091 \n-4 1:0.90970067 2:0.065893164 3:0.10332676 4:0.91761998 5:0.93350919 \n-4 1:0.93721974 2:0.065893164 3:0.066889505 4:0.93914732 5:0.95039068 \n-4 1:0.96080091 2:0.065893164 3:0.038791505 4:0.95561133 5:0.96328362 \n4 1:0.85683245 2:0.065893164 3:0.21958222 4:0.84345413 5:0.86942086 \n-1.943388131866539 1:0.91845639 2:0.065893164 3:0.10110662 4:0.93272892 5:0.94314437 \n4 1:0.94440382 2:0.065893164 3:0.066034206 4:0.95713921 5:0.96295097 \n-4 1:0.96673844 2:0.065893164 3:0.038520646 4:0.9725482 5:0.97493599 \n4 1:0.74739764 2:0.14846153 3:0.41113023 4:0.77153239 5:0.83007162 \n4 1:0.83427608 2:0.14846153 3:0.29005041 4:0.84614677 5:0.88820128 \n4 1:0.88770853 2:0.14846153 3:0.19790088 4:0.89398286 5:0.92365587 \n-4 1:0.92771426 2:0.14846153 3:0.12381822 4:0.92637858 5:0.94684099 \n-4 1:0.9676263 2:0.14846153 3:0.052060283 4:0.95559205 5:0.96703772 \n4 1:0.78152183 2:0.14846153 3:0.40864318 4:0.82425745 5:0.86490547 \n4 1:0.87081852 2:0.14846153 3:0.26806015 4:0.91075502 5:0.93034494 \n-4 1:0.95651903 2:0.14846153 3:0.1225211 4:0.9517698 5:0.96094449 \n-4 1:0.98981768 2:0.14846153 3:0.05742821 4:0.97422671 5:0.97760939 \n4 1:0.86791324 2:1.3877788e-17 3:0.37260704 4:0.87857405 5:0.91034337 \n4 1:0.92130668 2:1.3877788e-17 3:0.24261788 4:0.92438751 5:0.94390258 \n-4 1:0.95893545 2:1.3877788e-17 3:0.14600092 4:0.95136652 5:0.96312595 \n-4 1:0.98279931 2:1.3877788e-17 3:0.088715839 4:0.96562426 5:0.97317865 \n-4 1:0.99598932 2:1.3877788e-17 3:0.054338915 4:0.97258446 5:0.97789853 \n4 1:0.88979042 2:1.3877788e-17 3:0.36458565 4:0.91829942 5:0.93438331 \n4 1:0.92682983 2:1.3877788e-17 3:0.29325466 4:0.92327294 5:0.94029189 \n4 1:0.96549689 2:1.3877788e-17 3:0.18448706 4:0.95568435 5:0.96462325 \n-4 1:0.98816752 2:1.3877788e-17 3:0.11216929 4:0.97208429 5:0.97716506 \n-4 1:1 2:1.3877788e-17 3:0.074709209 4:0.97798793 5:0.98145195 \n-4 1:0.27871845 2:0.968462 3:0.47951813 4:0.28255085 5:0.35504455 \n-4 1:0.48632108 2:0.968462 3:0.31026322 4:0.54522516 5:0.63113419 \n-4 1:0.64489737 2:0.968462 3:0.18002294 4:0.73105721 5:0.79964277 \n-4 1:0.77484729 2:0.968462 3:0.089514213 4:0.84205855 5:0.88605804 \n-1.727341234172313 1:1.110223e-16 2:0.968462 3:0.62188315 4:0.0053330527 \n-4 1:0.29417977 2:0.968462 3:0.43561511 4:0.32100884 5:0.38897225 \n-4 1:0.49686591 2:0.968462 3:0.28173902 4:0.58790345 5:0.66923055 \n0.9751911266566995 1:0.65667202 2:0.968462 3:0.16588218 4:0.77450348 5:0.83570467 \n-3.095997396956162 1:0.7896287 2:0.968462 3:0.080074824 4:0.86970938 5:0.90886342 \n4 1:0.35006785 2:1 3:0.82970816 4:0.38030279 5:0.47851904 \n4 1:0.53514209 2:1 3:0.58868438 4:0.6017341 5:0.68737238 \n4 1:0.71507251 2:1 3:0.33560967 4:0.80164848 5:0.85703099 \n4 1:0.79447844 2:1 3:0.21473718 4:0.88445319 5:0.92121171 \n4 1:0.89762061 2:1 3:0.11540479 4:0.9282506 5:0.94522236 \n4 1:0.35074595 2:1 3:0.80033147 4:0.38547741 5:0.47652111 \n4 1:0.55248203 2:1 3:0.56996523 4:0.62897564 5:0.70815781 \n4 1:0.73968257 2:1 3:0.31427182 4:0.83749631 5:0.88325545 \n4 1:0.81507275 2:1 3:0.19774749 4:0.91418716 5:0.94223302 \n4 1:0.91770545 2:1 3:0.10164741 4:0.94471065 5:0.95618294 \n-4 1:0.63636169 2:0.60396085 3:0.99458103 4:0.67745459 5:0.72835488 \n-4 1:0.73808876 2:0.60396085 3:0.75721796 4:0.78427235 5:0.82165028 \n-4 1:0.8272471 2:0.60396085 3:0.53372725 4:0.85930057 5:0.88728908 \n-4 1:0.88168328 2:0.60396085 3:0.38036571 4:0.90196676 5:0.92173156 \n-4 1:0.93904706 2:0.60396085 3:0.2155621 4:0.94138755 5:0.95273667 \n-4 1:0.63308991 2:0.60396085 3:1 4:0.74645801 5:0.78867746 \n-3.233273237004985 1:0.72232225 2:0.60396085 3:0.75818149 4:0.84859773 5:0.88102612 \n-4 1:0.84926449 2:0.60396085 3:0.51145537 4:0.91253379 5:0.92870259 \n-4 1:0.90193957 2:0.60396085 3:0.36511013 4:0.95489909 5:0.9634361 \n4 1:0.95800291 2:0.60396085 3:0.19894372 4:0.98477365 5:0.98641077 \n4 1:0.68965514 2:0.31741336 3:0.2038152 4:0.73049562 5:0.77815923 \n4 1:0.77513638 2:0.31741336 3:0.14055724 4:0.8006223 5:0.83882717 \n4 1:0.83919208 2:0.31741336 3:0.086713948 4:0.86038234 5:0.88890317 \n-4 1:0.90352909 2:0.31741336 3:0.034552692 4:0.91423216 5:0.932522 \n4 1:0.71515081 2:0.31741336 3:0.22376172 4:0.76051573 5:0.79817371 \n4 1:0.80623331 2:0.31741336 3:0.14059195 4:0.86160538 5:0.8872236 \n4 1:0.86861805 2:0.31741336 3:0.088410158 4:0.88882374 5:0.90852011 \n4 1:0.93115579 2:0.31741336 3:0.035735599 4:0.94354045 5:0.95350501 \n-4 1:0.97598135 2:0.31741336 3:0.0021718747 4:0.97336407 5:0.97710292 \n4 1:0.71255549 2:0.15366261 3:0.19665238 4:0.80866018 5:0.84884245 \n4 1:0.78720817 2:0.15366261 3:0.1400817 4:0.86454933 5:0.89488869 \n4 1:0.85478373 2:0.15366261 3:0.088991096 4:0.9025166 5:0.92499867 \n-4 1:0.91126304 2:0.15366261 3:0.044693607 4:0.93937849 5:0.95304189 \n-4 1:0.94869324 2:0.15366261 3:0.012039687 4:0.96113749 5:0.96887862 \n4 1:0.69859952 2:0.15366261 3:0.2200826 4:0.85610049 5:0.89220649 \n4 1:0.80326825 2:0.15366261 3:0.15498982 4:0.8952381 5:0.9177477 \n4 1:0.88632123 2:0.15366261 3:0.095820665 4:0.95420562 5:0.96516936 \n-4 1:0.93719134 2:0.15366261 3:0.054447094 4:0.9848587 5:0.98866872 \n4 1:0.4957595 2:0.61682917 3:0.23627649 4:0.58929455 5:0.65515728 \n-4 1:0.62845001 2:0.61682917 3:0.15815832 4:0.7230333 5:0.7772504 \n-4 1:0.76216783 2:0.61682917 3:0.082946168 4:0.83292226 5:0.86769002 \n-4 1:0.83940298 2:0.61682917 3:0.04375467 4:0.89518079 5:0.91712245 \n-4 1:0.8866763 2:0.61682917 3:0.016841206 4:0.92635005 5:0.94115568 \n4 1:0.56383136 2:0.61682917 3:0.23938811 4:0.67379575 5:0.72695226 \n1.024808873343301 1:0.69533731 2:0.61682917 3:0.15729644 4:0.80728098 5:0.84549458 \n-4 1:0.81962278 2:0.61682917 3:0.08073912 4:0.89085719 5:0.91261515 \n4 1:0.88213669 2:0.61682917 3:0.041955408 4:0.93539236 5:0.94654248 \n",
        "feature_dict": {
            "FUNQUE_feature": [
                "wd_essim",
                "dlm",
                "motion",
                "vif_scale1",
                "vif_scale2"
            ]
        },
        "feature_optional_dict": null,
        "feature_optional_dict2": null,
        "score_clip": [
            0.0,
            100.0
        ]
    }
}
